/*
 * layer_0.h
 *
 * Created on : 2023-11-05 13:01:01
 * Author: <Your name>
 * Purpose: <Classify <your things>
 * Model ID: 23382
 */

#ifndef layer_0_H_
#define layer_0_H_

/* Add the CControl header file */
#include "ccontrol.h"

/*
 * This is a Neural Network - A model that can classify raw data.
 * Most used for images, but you can use it at any data you want as long the data is stored into .pgm files in format P2 or P5.
 * This file contains one matrix called 'layer_0_w' and one vector called 'layer_0_b'.
 * To use this header file, your data that must be a vector of size 'layer_0_column' in row-major.
 * For example, if you have an image with size m * n, where m * n = 'layer_0_column', then you need to turn it into a vector in row-wise, not in column-wise.
 * Multiply your vector together with the matrix 'layer_0_w' and add vector 'layer_0_b'. Then you will get a new vector called y with the size 'layer_0_row'.
 * y = layer_0_w*your_data_vector + layer_0_b
 * The index of the largest number inside the vector y is the class ID of your_data_vector.
 * If you get wrong class ID, then you need to use take account to noise or use better dimension reduction.
 */

#define layer_0_row 5
#define layer_0_column 88

const static float layer_0_w[layer_0_row * layer_0_column] = { 6.353525817e-02f, 6.352317333e-02f, -6.854933500e-02f, -5.097379908e-02f, -6.123367324e-02f, -3.015546501e-02f, -2.658182755e-02f, 3.016532771e-02f, 1.829430647e-02f, 2.487586439e-02f, 2.512777224e-02f, 2.531826869e-02f, 2.018379234e-02f, 3.614624590e-02f, -6.019890308e-03f, 1.287016645e-02f, 7.278941572e-02f, 8.532370627e-02f, -4.096102342e-02f, -2.543615177e-02f, -8.015298843e-02f, 3.455079161e-03f, -3.830991685e-02f, -2.005372755e-02f, 2.487586439e-02f, 2.487586439e-02f, 2.506636083e-02f, 2.879739925e-02f, 4.634000361e-02f, 1.979298890e-02f, -7.769901771e-03f, -3.848987073e-02f, 4.840367287e-02f, 1.002305001e-01f, -6.720466912e-02f, -1.244641244e-01f, -1.523571908e-01f, -1.409952492e-01f, -8.187812567e-02f, -7.743798196e-02f, 4.109655693e-02f, 4.109655693e-02f, 4.128704593e-02f, 3.615258262e-02f, 3.633842245e-02f, -7.824320346e-03f, -5.089090019e-02f, -5.688294768e-04f, 7.252296805e-02f, 1.516748071e-01f, 1.392338425e-03f, -1.162640750e-01f, -2.012815773e-01f, -1.587327570e-01f, -1.166821569e-01f, -5.850823224e-02f, 1.143491268e-02f, 1.143491268e-02f, -5.363253877e-03f, -1.404289342e-02f, -1.385701634e-02f, -2.322852425e-02f, -2.288515680e-02f, 1.707899384e-02f, 1.588560641e-01f, 1.935356855e-01f, 1.090501100e-01f, 1.118274406e-03f, -3.824659809e-02f, -3.971015289e-02f, -2.698039450e-02f, 3.111879900e-02f, -2.242131904e-02f, -2.242131904e-02f, -4.145431891e-02f, -4.789913073e-02f, -4.789913073e-02f, 5.889210850e-03f, -5.659420043e-03f, -6.583675276e-03f, -2.346932888e-07f, 4.784282669e-02f, 4.784282669e-02f, 7.098238170e-02f, 1.055308357e-01f, 1.339758188e-01f, 7.029886544e-02f, -5.725978687e-02f, 
-3.015546501e-02f, -2.658182755e-02f, 3.016532771e-02f, 1.829430647e-02f, 2.487586439e-02f, 2.512777224e-02f, 2.531826869e-02f, 2.018379234e-02f, 3.614624590e-02f, -6.019890308e-03f, 1.287016645e-02f, 7.278941572e-02f, 8.532370627e-02f, -4.096102342e-02f, -2.543615177e-02f, -8.015298843e-02f, 3.455079161e-03f, -3.830991685e-02f, -2.005372755e-02f, 2.487586439e-02f, 2.487586439e-02f, 2.506636083e-02f, 2.879739925e-02f, 4.634000361e-02f, 1.979298890e-02f, -7.769901771e-03f, -3.848987073e-02f, 4.840367287e-02f, 1.002305001e-01f, -6.720466912e-02f, -1.244641244e-01f, -1.523571908e-01f, -1.409952492e-01f, -8.187812567e-02f, -7.743798196e-02f, 4.109655693e-02f, 4.109655693e-02f, 4.128704593e-02f, 3.615258262e-02f, 3.633842245e-02f, -7.824320346e-03f, -5.089090019e-02f, -5.688294768e-04f, 7.252296805e-02f, 1.516748071e-01f, 1.392338425e-03f, -1.162640750e-01f, -2.012815773e-01f, -1.587327570e-01f, -1.166821569e-01f, -5.850823224e-02f, 1.143491268e-02f, 1.143491268e-02f, -5.363253877e-03f, -1.404289342e-02f, -1.385701634e-02f, -2.322852425e-02f, -2.288515680e-02f, 1.707899384e-02f, 1.588560641e-01f, 1.935356855e-01f, 1.090501100e-01f, 1.118274406e-03f, -3.824659809e-02f, -3.971015289e-02f, -2.698039450e-02f, 3.111879900e-02f, -2.242131904e-02f, -2.242131904e-02f, -4.145431891e-02f, -4.789913073e-02f, -4.789913073e-02f, 5.889210850e-03f, -5.659420043e-03f, -6.583675276e-03f, -2.346932888e-07f, 4.784282669e-02f, 4.784282669e-02f, 7.098238170e-02f, 1.055308357e-01f, 1.339758188e-01f, 7.029886544e-02f, -5.725978687e-02f, 1.186053082e-02f, 1.188442111e-02f, 6.627665460e-02f, 8.745168149e-02f, 7.454966009e-02f, 
2.512777224e-02f, 2.531826869e-02f, 2.018379234e-02f, 3.614624590e-02f, -6.019890308e-03f, 1.287016645e-02f, 7.278941572e-02f, 8.532370627e-02f, -4.096102342e-02f, -2.543615177e-02f, -8.015298843e-02f, 3.455079161e-03f, -3.830991685e-02f, -2.005372755e-02f, 2.487586439e-02f, 2.487586439e-02f, 2.506636083e-02f, 2.879739925e-02f, 4.634000361e-02f, 1.979298890e-02f, -7.769901771e-03f, -3.848987073e-02f, 4.840367287e-02f, 1.002305001e-01f, -6.720466912e-02f, -1.244641244e-01f, -1.523571908e-01f, -1.409952492e-01f, -8.187812567e-02f, -7.743798196e-02f, 4.109655693e-02f, 4.109655693e-02f, 4.128704593e-02f, 3.615258262e-02f, 3.633842245e-02f, -7.824320346e-03f, -5.089090019e-02f, -5.688294768e-04f, 7.252296805e-02f, 1.516748071e-01f, 1.392338425e-03f, -1.162640750e-01f, -2.012815773e-01f, -1.587327570e-01f, -1.166821569e-01f, -5.850823224e-02f, 1.143491268e-02f, 1.143491268e-02f, -5.363253877e-03f, -1.404289342e-02f, -1.385701634e-02f, -2.322852425e-02f, -2.288515680e-02f, 1.707899384e-02f, 1.588560641e-01f, 1.935356855e-01f, 1.090501100e-01f, 1.118274406e-03f, -3.824659809e-02f, -3.971015289e-02f, -2.698039450e-02f, 3.111879900e-02f, -2.242131904e-02f, -2.242131904e-02f, -4.145431891e-02f, -4.789913073e-02f, -4.789913073e-02f, 5.889210850e-03f, -5.659420043e-03f, -6.583675276e-03f, -2.346932888e-07f, 4.784282669e-02f, 4.784282669e-02f, 7.098238170e-02f, 1.055308357e-01f, 1.339758188e-01f, 7.029886544e-02f, -5.725978687e-02f, 1.186053082e-02f, 1.188442111e-02f, 6.627665460e-02f, 8.745168149e-02f, 7.454966009e-02f, -2.287898771e-02f, -1.245089546e-01f, -2.274787873e-01f, 2.231465466e-02f, 2.231465466e-02f, 
1.287016645e-02f, 7.278941572e-02f, 8.532370627e-02f, -4.096102342e-02f, -2.543615177e-02f, -8.015298843e-02f, 3.455079161e-03f, -3.830991685e-02f, -2.005372755e-02f, 2.487586439e-02f, 2.487586439e-02f, 2.506636083e-02f, 2.879739925e-02f, 4.634000361e-02f, 1.979298890e-02f, -7.769901771e-03f, -3.848987073e-02f, 4.840367287e-02f, 1.002305001e-01f, -6.720466912e-02f, -1.244641244e-01f, -1.523571908e-01f, -1.409952492e-01f, -8.187812567e-02f, -7.743798196e-02f, 4.109655693e-02f, 4.109655693e-02f, 4.128704593e-02f, 3.615258262e-02f, 3.633842245e-02f, -7.824320346e-03f, -5.089090019e-02f, -5.688294768e-04f, 7.252296805e-02f, 1.516748071e-01f, 1.392338425e-03f, -1.162640750e-01f, -2.012815773e-01f, -1.587327570e-01f, -1.166821569e-01f, -5.850823224e-02f, 1.143491268e-02f, 1.143491268e-02f, -5.363253877e-03f, -1.404289342e-02f, -1.385701634e-02f, -2.322852425e-02f, -2.288515680e-02f, 1.707899384e-02f, 1.588560641e-01f, 1.935356855e-01f, 1.090501100e-01f, 1.118274406e-03f, -3.824659809e-02f, -3.971015289e-02f, -2.698039450e-02f, 3.111879900e-02f, -2.242131904e-02f, -2.242131904e-02f, -4.145431891e-02f, -4.789913073e-02f, -4.789913073e-02f, 5.889210850e-03f, -5.659420043e-03f, -6.583675276e-03f, -2.346932888e-07f, 4.784282669e-02f, 4.784282669e-02f, 7.098238170e-02f, 1.055308357e-01f, 1.339758188e-01f, 7.029886544e-02f, -5.725978687e-02f, 1.186053082e-02f, 1.188442111e-02f, 6.627665460e-02f, 8.745168149e-02f, 7.454966009e-02f, -2.287898771e-02f, -1.245089546e-01f, -2.274787873e-01f, 2.231465466e-02f, 2.231465466e-02f, 1.359049603e-02f, 1.681300066e-02f, 2.216160856e-02f, 2.386785112e-02f, -1.939854585e-02f, 
-8.015298843e-02f, 3.455079161e-03f, -3.830991685e-02f, -2.005372755e-02f, 2.487586439e-02f, 2.487586439e-02f, 2.506636083e-02f, 2.879739925e-02f, 4.634000361e-02f, 1.979298890e-02f, -7.769901771e-03f, -3.848987073e-02f, 4.840367287e-02f, 1.002305001e-01f, -6.720466912e-02f, -1.244641244e-01f, -1.523571908e-01f, -1.409952492e-01f, -8.187812567e-02f, -7.743798196e-02f, 4.109655693e-02f, 4.109655693e-02f, 4.128704593e-02f, 3.615258262e-02f, 3.633842245e-02f, -7.824320346e-03f, -5.089090019e-02f, -5.688294768e-04f, 7.252296805e-02f, 1.516748071e-01f, 1.392338425e-03f, -1.162640750e-01f, -2.012815773e-01f, -1.587327570e-01f, -1.166821569e-01f, -5.850823224e-02f, 1.143491268e-02f, 1.143491268e-02f, -5.363253877e-03f, -1.404289342e-02f, -1.385701634e-02f, -2.322852425e-02f, -2.288515680e-02f, 1.707899384e-02f, 1.588560641e-01f, 1.935356855e-01f, 1.090501100e-01f, 1.118274406e-03f, -3.824659809e-02f, -3.971015289e-02f, -2.698039450e-02f, 3.111879900e-02f, -2.242131904e-02f, -2.242131904e-02f, -4.145431891e-02f, -4.789913073e-02f, -4.789913073e-02f, 5.889210850e-03f, -5.659420043e-03f, -6.583675276e-03f, -2.346932888e-07f, 4.784282669e-02f, 4.784282669e-02f, 7.098238170e-02f, 1.055308357e-01f, 1.339758188e-01f, 7.029886544e-02f, -5.725978687e-02f, 1.186053082e-02f, 1.188442111e-02f, 6.627665460e-02f, 8.745168149e-02f, 7.454966009e-02f, -2.287898771e-02f, -1.245089546e-01f, -2.274787873e-01f, 2.231465466e-02f, 2.231465466e-02f, 1.359049603e-02f, 1.681300066e-02f, 2.216160856e-02f, 2.386785112e-02f, -1.939854585e-02f, -1.522261836e-02f, 2.560466062e-03f, 1.692709513e-02f, 4.331242666e-02f, -2.711741440e-02f };

const static float layer_0_b[layer_0_row] = { -1.235744715e+00f, -2.217944145e+00f, -3.228320837e+00f, 1.102403522e+00f, -6.934618354e-01f };

const static ACTIVATION_FUNCTION layer_0_activtion_function = ACTIVTION_FUNCTION_CLOSEST_VALUE_INDEX;

#endif /* !layer_0_H_ */
