/*
 * layer_0.h
 *
 * Created on : 2023-11-05 14:43:41
 * Author: <Your name>
 * Purpose: <Classify <your things>
 * Model ID: 10730
 */

#ifndef layer_0_H_
#define layer_0_H_

/* Add the CControl header file */
#include "ccontrol.h"

/*
 * This is a Neural Network - A model that can classify raw data.
 * Most used for images, but you can use it at any data you want as long the data is stored into .pgm files in format P2 or P5.
 * This file contains one matrix called 'layer_0_w' and one vector called 'layer_0_b'.
 * To use this header file, your data that must be a vector of size 'layer_0_column' in row-major.
 * For example, if you have an image with size m * n, where m * n = 'layer_0_column', then you need to turn it into a vector in row-wise, not in column-wise.
 * Multiply your vector together with the matrix 'layer_0_w' and add vector 'layer_0_b'. Then you will get a new vector called y with the size 'layer_0_row'.
 * y = layer_0_w*your_data_vector + layer_0_b
 * The index of the largest number inside the vector y is the class ID of your_data_vector.
 * If you get wrong class ID, then you need to use take account to noise or use better dimension reduction.
 */

#define layer_0_row 5
#define layer_0_column 88

const static float layer_0_w[layer_0_row * layer_0_column] = { 3.747267276e-02f, 3.747267276e-02f, 3.747267276e-02f, 3.747267276e-02f, 4.334473610e-02f, 4.334473610e-02f, 4.504030570e-02f, 3.646067157e-02f, -1.959428191e-02f, -8.118201047e-02f, -9.112618119e-02f, -1.029552445e-01f, -1.014157459e-01f, -8.613238484e-02f, -8.313187957e-02f, -4.730980098e-02f, 3.621929884e-02f, 3.621929884e-02f, 3.621929884e-02f, 3.747267276e-02f, 3.249885142e-02f, 2.478117682e-02f, 2.647675388e-02f, 2.874300070e-02f, -2.573149092e-02f, -6.678469479e-02f, -9.596414864e-02f, -1.068100333e-01f, -8.046929538e-02f, -6.300126016e-02f, -6.049138680e-02f, -2.975618467e-02f, 4.209136218e-02f, 4.209136218e-02f, 4.209136218e-02f, 3.460583836e-02f, 2.375995554e-02f, 1.604229026e-02f, 1.401153952e-02f, 1.237067394e-02f, -1.266695280e-02f, -5.712075531e-02f, -8.218882233e-02f, -8.057764918e-02f, -7.265070826e-02f, -3.919282556e-02f, -2.006032877e-02f, -1.931342296e-02f, 5.087874830e-02f, 5.087874830e-02f, 6.382026523e-02f, 5.508137494e-02f, 5.633474514e-02f, 6.332584471e-02f, 3.969025239e-02f, 3.307338059e-02f, -1.099213492e-02f, -5.110927671e-02f, -7.613196224e-02f, -5.233312026e-02f, -4.542001709e-02f, -2.056065015e-02f, -1.506854314e-02f, -1.503136009e-02f, 3.044441715e-02f, 3.719944507e-02f, 5.014097691e-02f, 4.140207916e-02f, 4.940700158e-02f, 4.940700158e-02f, 2.475758456e-02f, 2.347704768e-02f, -4.988380708e-03f, -4.031852260e-02f, -6.100687757e-02f, -3.435921669e-02f, -2.802786604e-02f, -1.168957446e-02f, -5.724477116e-03f, -4.710644949e-03f, 1.897851005e-02f, 1.897851005e-02f, 2.683318034e-02f, 2.683318034e-02f, 2.089074999e-02f, 2.089074999e-02f, 5.312189832e-02f, 5.899395421e-02f, 
4.334473610e-02f, 4.504030570e-02f, 3.646067157e-02f, -1.959428191e-02f, -8.118201047e-02f, -9.112618119e-02f, -1.029552445e-01f, -1.014157459e-01f, -8.613238484e-02f, -8.313187957e-02f, -4.730980098e-02f, 3.621929884e-02f, 3.621929884e-02f, 3.621929884e-02f, 3.747267276e-02f, 3.249885142e-02f, 2.478117682e-02f, 2.647675388e-02f, 2.874300070e-02f, -2.573149092e-02f, -6.678469479e-02f, -9.596414864e-02f, -1.068100333e-01f, -8.046929538e-02f, -6.300126016e-02f, -6.049138680e-02f, -2.975618467e-02f, 4.209136218e-02f, 4.209136218e-02f, 4.209136218e-02f, 3.460583836e-02f, 2.375995554e-02f, 1.604229026e-02f, 1.401153952e-02f, 1.237067394e-02f, -1.266695280e-02f, -5.712075531e-02f, -8.218882233e-02f, -8.057764918e-02f, -7.265070826e-02f, -3.919282556e-02f, -2.006032877e-02f, -1.931342296e-02f, 5.087874830e-02f, 5.087874830e-02f, 6.382026523e-02f, 5.508137494e-02f, 5.633474514e-02f, 6.332584471e-02f, 3.969025239e-02f, 3.307338059e-02f, -1.099213492e-02f, -5.110927671e-02f, -7.613196224e-02f, -5.233312026e-02f, -4.542001709e-02f, -2.056065015e-02f, -1.506854314e-02f, -1.503136009e-02f, 3.044441715e-02f, 3.719944507e-02f, 5.014097691e-02f, 4.140207916e-02f, 4.940700158e-02f, 4.940700158e-02f, 2.475758456e-02f, 2.347704768e-02f, -4.988380708e-03f, -4.031852260e-02f, -6.100687757e-02f, -3.435921669e-02f, -2.802786604e-02f, -1.168957446e-02f, -5.724477116e-03f, -4.710644949e-03f, 1.897851005e-02f, 1.897851005e-02f, 2.683318034e-02f, 2.683318034e-02f, 2.089074999e-02f, 2.089074999e-02f, 5.312189832e-02f, 5.899395421e-02f, -2.830486000e-02f, -2.758404613e-02f, -2.062413096e-02f, -1.693621650e-02f, -2.231916413e-02f, 
-9.112618119e-02f, -1.029552445e-01f, -1.014157459e-01f, -8.613238484e-02f, -8.313187957e-02f, -4.730980098e-02f, 3.621929884e-02f, 3.621929884e-02f, 3.621929884e-02f, 3.747267276e-02f, 3.249885142e-02f, 2.478117682e-02f, 2.647675388e-02f, 2.874300070e-02f, -2.573149092e-02f, -6.678469479e-02f, -9.596414864e-02f, -1.068100333e-01f, -8.046929538e-02f, -6.300126016e-02f, -6.049138680e-02f, -2.975618467e-02f, 4.209136218e-02f, 4.209136218e-02f, 4.209136218e-02f, 3.460583836e-02f, 2.375995554e-02f, 1.604229026e-02f, 1.401153952e-02f, 1.237067394e-02f, -1.266695280e-02f, -5.712075531e-02f, -8.218882233e-02f, -8.057764918e-02f, -7.265070826e-02f, -3.919282556e-02f, -2.006032877e-02f, -1.931342296e-02f, 5.087874830e-02f, 5.087874830e-02f, 6.382026523e-02f, 5.508137494e-02f, 5.633474514e-02f, 6.332584471e-02f, 3.969025239e-02f, 3.307338059e-02f, -1.099213492e-02f, -5.110927671e-02f, -7.613196224e-02f, -5.233312026e-02f, -4.542001709e-02f, -2.056065015e-02f, -1.506854314e-02f, -1.503136009e-02f, 3.044441715e-02f, 3.719944507e-02f, 5.014097691e-02f, 4.140207916e-02f, 4.940700158e-02f, 4.940700158e-02f, 2.475758456e-02f, 2.347704768e-02f, -4.988380708e-03f, -4.031852260e-02f, -6.100687757e-02f, -3.435921669e-02f, -2.802786604e-02f, -1.168957446e-02f, -5.724477116e-03f, -4.710644949e-03f, 1.897851005e-02f, 1.897851005e-02f, 2.683318034e-02f, 2.683318034e-02f, 2.089074999e-02f, 2.089074999e-02f, 5.312189832e-02f, 5.899395421e-02f, -2.830486000e-02f, -2.758404613e-02f, -2.062413096e-02f, -1.693621650e-02f, -2.231916413e-02f, -4.909854755e-02f, -3.483910486e-02f, -5.109359324e-02f, 1.290829480e-02f, 2.599762753e-02f, 
-4.730980098e-02f, 3.621929884e-02f, 3.621929884e-02f, 3.621929884e-02f, 3.747267276e-02f, 3.249885142e-02f, 2.478117682e-02f, 2.647675388e-02f, 2.874300070e-02f, -2.573149092e-02f, -6.678469479e-02f, -9.596414864e-02f, -1.068100333e-01f, -8.046929538e-02f, -6.300126016e-02f, -6.049138680e-02f, -2.975618467e-02f, 4.209136218e-02f, 4.209136218e-02f, 4.209136218e-02f, 3.460583836e-02f, 2.375995554e-02f, 1.604229026e-02f, 1.401153952e-02f, 1.237067394e-02f, -1.266695280e-02f, -5.712075531e-02f, -8.218882233e-02f, -8.057764918e-02f, -7.265070826e-02f, -3.919282556e-02f, -2.006032877e-02f, -1.931342296e-02f, 5.087874830e-02f, 5.087874830e-02f, 6.382026523e-02f, 5.508137494e-02f, 5.633474514e-02f, 6.332584471e-02f, 3.969025239e-02f, 3.307338059e-02f, -1.099213492e-02f, -5.110927671e-02f, -7.613196224e-02f, -5.233312026e-02f, -4.542001709e-02f, -2.056065015e-02f, -1.506854314e-02f, -1.503136009e-02f, 3.044441715e-02f, 3.719944507e-02f, 5.014097691e-02f, 4.140207916e-02f, 4.940700158e-02f, 4.940700158e-02f, 2.475758456e-02f, 2.347704768e-02f, -4.988380708e-03f, -4.031852260e-02f, -6.100687757e-02f, -3.435921669e-02f, -2.802786604e-02f, -1.168957446e-02f, -5.724477116e-03f, -4.710644949e-03f, 1.897851005e-02f, 1.897851005e-02f, 2.683318034e-02f, 2.683318034e-02f, 2.089074999e-02f, 2.089074999e-02f, 5.312189832e-02f, 5.899395421e-02f, -2.830486000e-02f, -2.758404613e-02f, -2.062413096e-02f, -1.693621650e-02f, -2.231916413e-02f, -4.909854755e-02f, -3.483910486e-02f, -5.109359324e-02f, 1.290829480e-02f, 2.599762753e-02f, 2.599762753e-02f, 2.975689620e-02f, 1.995421574e-02f, -1.340628415e-02f, -2.540816925e-02f, 
3.249885142e-02f, 2.478117682e-02f, 2.647675388e-02f, 2.874300070e-02f, -2.573149092e-02f, -6.678469479e-02f, -9.596414864e-02f, -1.068100333e-01f, -8.046929538e-02f, -6.300126016e-02f, -6.049138680e-02f, -2.975618467e-02f, 4.209136218e-02f, 4.209136218e-02f, 4.209136218e-02f, 3.460583836e-02f, 2.375995554e-02f, 1.604229026e-02f, 1.401153952e-02f, 1.237067394e-02f, -1.266695280e-02f, -5.712075531e-02f, -8.218882233e-02f, -8.057764918e-02f, -7.265070826e-02f, -3.919282556e-02f, -2.006032877e-02f, -1.931342296e-02f, 5.087874830e-02f, 5.087874830e-02f, 6.382026523e-02f, 5.508137494e-02f, 5.633474514e-02f, 6.332584471e-02f, 3.969025239e-02f, 3.307338059e-02f, -1.099213492e-02f, -5.110927671e-02f, -7.613196224e-02f, -5.233312026e-02f, -4.542001709e-02f, -2.056065015e-02f, -1.506854314e-02f, -1.503136009e-02f, 3.044441715e-02f, 3.719944507e-02f, 5.014097691e-02f, 4.140207916e-02f, 4.940700158e-02f, 4.940700158e-02f, 2.475758456e-02f, 2.347704768e-02f, -4.988380708e-03f, -4.031852260e-02f, -6.100687757e-02f, -3.435921669e-02f, -2.802786604e-02f, -1.168957446e-02f, -5.724477116e-03f, -4.710644949e-03f, 1.897851005e-02f, 1.897851005e-02f, 2.683318034e-02f, 2.683318034e-02f, 2.089074999e-02f, 2.089074999e-02f, 5.312189832e-02f, 5.899395421e-02f, -2.830486000e-02f, -2.758404613e-02f, -2.062413096e-02f, -1.693621650e-02f, -2.231916413e-02f, -4.909854755e-02f, -3.483910486e-02f, -5.109359324e-02f, 1.290829480e-02f, 2.599762753e-02f, 2.599762753e-02f, 2.975689620e-02f, 1.995421574e-02f, -1.340628415e-02f, -2.540816925e-02f, -1.062131524e-01f, -4.715131596e-02f, -2.781646699e-02f, -3.139695525e-02f, -4.371559992e-02f };

const static float layer_0_b[layer_0_row] = { -8.953363299e-01f, 7.159762979e-01f, -4.053829193e+00f, -2.386170149e+00f, -7.291791439e-01f };

const static ACTIVATION_FUNCTION layer_0_activtion_function = ACTIVTION_FUNCTION_CLOSEST_VALUE_INDEX;

#endif /* !layer_0_H_ */
