/*
 * layer_0.h
 *
 * Created on : 2023-11-05 21:33:10
 * Author: <Your name>
 * Purpose: <Classify <your things>
 * Model ID: 25426
 */

#ifndef layer_0_H_
#define layer_0_H_

/* Add the CControl header file */
#include "ccontrol.h"

/*
 * This is a Neural Network - A model that can classify raw data.
 * Most used for images, but you can use it at any data you want as long the data is stored into .pgm files in format P2 or P5.
 * This file contains one matrix called 'layer_0_w' and one vector called 'layer_0_b'.
 * To use this header file, your data that must be a vector of size 'layer_0_column' in row-major.
 * For example, if you have an image with size m * n, where m * n = 'layer_0_column', then you need to turn it into a vector in row-wise, not in column-wise.
 * Multiply your vector together with the matrix 'layer_0_w' and add vector 'layer_0_b'. Then you will get a new vector called y with the size 'layer_0_row'.
 * y = layer_0_w*your_data_vector + layer_0_b
 * The index of the largest number inside the vector y is the class ID of your_data_vector.
 * If you get wrong class ID, then you need to use take account to noise or use better dimension reduction.
 */

#define layer_0_row 5
#define layer_0_column 88

const static float layer_0_w[layer_0_row * layer_0_column] = { -5.017151311e-02f, -5.762314051e-02f, -1.507466380e-02f, -3.658384457e-02f, -1.764084585e-02f, -3.532482311e-02f, -4.895117879e-02f, -3.032177314e-02f, 2.268434130e-02f, 2.268434130e-02f, 2.268434130e-02f, 2.268434130e-02f, 2.512828074e-02f, 1.029218314e-03f, -3.766543046e-02f, -4.884016700e-03f, -6.400516629e-02f, -8.416149020e-02f, -6.507749110e-02f, -5.955415219e-02f, -4.816926271e-02f, -7.203809172e-02f, -5.009187385e-02f, -2.980934829e-02f, 2.664402686e-02f, 2.664402686e-02f, 2.664402686e-02f, 1.156873070e-02f, 2.973463200e-02f, -2.832400799e-02f, -1.452329010e-02f, 3.957978450e-03f, -6.811816990e-02f, -1.286759973e-01f, -1.211823672e-01f, -8.680424094e-02f, -8.409918845e-02f, -5.593578517e-02f, -2.043656260e-02f, -1.579328068e-02f, -2.701777034e-02f, -2.701777034e-02f, -2.701777034e-02f, -2.457383461e-02f, -3.582137451e-02f, -5.828526802e-03f, 7.565883454e-03f, -2.265058272e-02f, -7.435506582e-02f, -1.528233737e-01f, -9.547193348e-02f, -4.168130830e-02f, -3.194307536e-02f, -2.256258577e-02f, -1.873483323e-02f, -1.417427324e-02f, -4.522280302e-03f, -4.522280302e-03f, -1.138180122e-02f, -8.937864564e-03f, -2.401316725e-02f, -1.268805191e-02f, -2.138281614e-02f, -6.136789545e-02f, -1.199710593e-01f, -1.530280560e-01f, -1.256798208e-01f, -7.359411567e-02f, -5.538469180e-02f, -6.275296211e-02f, -6.275296211e-02f, -6.275296211e-02f, 1.525381021e-02f, 1.525381021e-02f, 8.394284174e-03f, 1.083822362e-02f, 1.083822362e-02f, -2.809275128e-02f, -2.929014713e-02f, -4.201050103e-02f, 3.803323489e-04f, -3.709423542e-02f, -3.709423542e-02f, -8.114115894e-02f, -1.114064679e-01f, -1.383379549e-01f, -9.265095741e-02f, -6.431721151e-02f, 
-3.532482311e-02f, -4.895117879e-02f, -3.032177314e-02f, 2.268434130e-02f, 2.268434130e-02f, 2.268434130e-02f, 2.268434130e-02f, 2.512828074e-02f, 1.029218314e-03f, -3.766543046e-02f, -4.884016700e-03f, -6.400516629e-02f, -8.416149020e-02f, -6.507749110e-02f, -5.955415219e-02f, -4.816926271e-02f, -7.203809172e-02f, -5.009187385e-02f, -2.980934829e-02f, 2.664402686e-02f, 2.664402686e-02f, 2.664402686e-02f, 1.156873070e-02f, 2.973463200e-02f, -2.832400799e-02f, -1.452329010e-02f, 3.957978450e-03f, -6.811816990e-02f, -1.286759973e-01f, -1.211823672e-01f, -8.680424094e-02f, -8.409918845e-02f, -5.593578517e-02f, -2.043656260e-02f, -1.579328068e-02f, -2.701777034e-02f, -2.701777034e-02f, -2.701777034e-02f, -2.457383461e-02f, -3.582137451e-02f, -5.828526802e-03f, 7.565883454e-03f, -2.265058272e-02f, -7.435506582e-02f, -1.528233737e-01f, -9.547193348e-02f, -4.168130830e-02f, -3.194307536e-02f, -2.256258577e-02f, -1.873483323e-02f, -1.417427324e-02f, -4.522280302e-03f, -4.522280302e-03f, -1.138180122e-02f, -8.937864564e-03f, -2.401316725e-02f, -1.268805191e-02f, -2.138281614e-02f, -6.136789545e-02f, -1.199710593e-01f, -1.530280560e-01f, -1.256798208e-01f, -7.359411567e-02f, -5.538469180e-02f, -6.275296211e-02f, -6.275296211e-02f, -6.275296211e-02f, 1.525381021e-02f, 1.525381021e-02f, 8.394284174e-03f, 1.083822362e-02f, 1.083822362e-02f, -2.809275128e-02f, -2.929014713e-02f, -4.201050103e-02f, 3.803323489e-04f, -3.709423542e-02f, -3.709423542e-02f, -8.114115894e-02f, -1.114064679e-01f, -1.383379549e-01f, -9.265095741e-02f, -6.431721151e-02f, 4.028976895e-03f, -8.997082710e-03f, 1.095784456e-02f, 2.520429716e-02f, 8.261424303e-02f, 
2.268434130e-02f, 2.268434130e-02f, 2.512828074e-02f, 1.029218314e-03f, -3.766543046e-02f, -4.884016700e-03f, -6.400516629e-02f, -8.416149020e-02f, -6.507749110e-02f, -5.955415219e-02f, -4.816926271e-02f, -7.203809172e-02f, -5.009187385e-02f, -2.980934829e-02f, 2.664402686e-02f, 2.664402686e-02f, 2.664402686e-02f, 1.156873070e-02f, 2.973463200e-02f, -2.832400799e-02f, -1.452329010e-02f, 3.957978450e-03f, -6.811816990e-02f, -1.286759973e-01f, -1.211823672e-01f, -8.680424094e-02f, -8.409918845e-02f, -5.593578517e-02f, -2.043656260e-02f, -1.579328068e-02f, -2.701777034e-02f, -2.701777034e-02f, -2.701777034e-02f, -2.457383461e-02f, -3.582137451e-02f, -5.828526802e-03f, 7.565883454e-03f, -2.265058272e-02f, -7.435506582e-02f, -1.528233737e-01f, -9.547193348e-02f, -4.168130830e-02f, -3.194307536e-02f, -2.256258577e-02f, -1.873483323e-02f, -1.417427324e-02f, -4.522280302e-03f, -4.522280302e-03f, -1.138180122e-02f, -8.937864564e-03f, -2.401316725e-02f, -1.268805191e-02f, -2.138281614e-02f, -6.136789545e-02f, -1.199710593e-01f, -1.530280560e-01f, -1.256798208e-01f, -7.359411567e-02f, -5.538469180e-02f, -6.275296211e-02f, -6.275296211e-02f, -6.275296211e-02f, 1.525381021e-02f, 1.525381021e-02f, 8.394284174e-03f, 1.083822362e-02f, 1.083822362e-02f, -2.809275128e-02f, -2.929014713e-02f, -4.201050103e-02f, 3.803323489e-04f, -3.709423542e-02f, -3.709423542e-02f, -8.114115894e-02f, -1.114064679e-01f, -1.383379549e-01f, -9.265095741e-02f, -6.431721151e-02f, 4.028976895e-03f, -8.997082710e-03f, 1.095784456e-02f, 2.520429716e-02f, 8.261424303e-02f, 1.045843065e-01f, 6.349407136e-02f, 4.595542699e-02f, 2.534802258e-02f, 8.693048358e-02f, 
-4.884016700e-03f, -6.400516629e-02f, -8.416149020e-02f, -6.507749110e-02f, -5.955415219e-02f, -4.816926271e-02f, -7.203809172e-02f, -5.009187385e-02f, -2.980934829e-02f, 2.664402686e-02f, 2.664402686e-02f, 2.664402686e-02f, 1.156873070e-02f, 2.973463200e-02f, -2.832400799e-02f, -1.452329010e-02f, 3.957978450e-03f, -6.811816990e-02f, -1.286759973e-01f, -1.211823672e-01f, -8.680424094e-02f, -8.409918845e-02f, -5.593578517e-02f, -2.043656260e-02f, -1.579328068e-02f, -2.701777034e-02f, -2.701777034e-02f, -2.701777034e-02f, -2.457383461e-02f, -3.582137451e-02f, -5.828526802e-03f, 7.565883454e-03f, -2.265058272e-02f, -7.435506582e-02f, -1.528233737e-01f, -9.547193348e-02f, -4.168130830e-02f, -3.194307536e-02f, -2.256258577e-02f, -1.873483323e-02f, -1.417427324e-02f, -4.522280302e-03f, -4.522280302e-03f, -1.138180122e-02f, -8.937864564e-03f, -2.401316725e-02f, -1.268805191e-02f, -2.138281614e-02f, -6.136789545e-02f, -1.199710593e-01f, -1.530280560e-01f, -1.256798208e-01f, -7.359411567e-02f, -5.538469180e-02f, -6.275296211e-02f, -6.275296211e-02f, -6.275296211e-02f, 1.525381021e-02f, 1.525381021e-02f, 8.394284174e-03f, 1.083822362e-02f, 1.083822362e-02f, -2.809275128e-02f, -2.929014713e-02f, -4.201050103e-02f, 3.803323489e-04f, -3.709423542e-02f, -3.709423542e-02f, -8.114115894e-02f, -1.114064679e-01f, -1.383379549e-01f, -9.265095741e-02f, -6.431721151e-02f, 4.028976895e-03f, -8.997082710e-03f, 1.095784456e-02f, 2.520429716e-02f, 8.261424303e-02f, 1.045843065e-01f, 6.349407136e-02f, 4.595542699e-02f, 2.534802258e-02f, 8.693048358e-02f, 1.050476134e-01f, 1.090621799e-01f, 9.790294617e-02f, 6.590708345e-02f, 3.035811894e-02f, 
-4.816926271e-02f, -7.203809172e-02f, -5.009187385e-02f, -2.980934829e-02f, 2.664402686e-02f, 2.664402686e-02f, 2.664402686e-02f, 1.156873070e-02f, 2.973463200e-02f, -2.832400799e-02f, -1.452329010e-02f, 3.957978450e-03f, -6.811816990e-02f, -1.286759973e-01f, -1.211823672e-01f, -8.680424094e-02f, -8.409918845e-02f, -5.593578517e-02f, -2.043656260e-02f, -1.579328068e-02f, -2.701777034e-02f, -2.701777034e-02f, -2.701777034e-02f, -2.457383461e-02f, -3.582137451e-02f, -5.828526802e-03f, 7.565883454e-03f, -2.265058272e-02f, -7.435506582e-02f, -1.528233737e-01f, -9.547193348e-02f, -4.168130830e-02f, -3.194307536e-02f, -2.256258577e-02f, -1.873483323e-02f, -1.417427324e-02f, -4.522280302e-03f, -4.522280302e-03f, -1.138180122e-02f, -8.937864564e-03f, -2.401316725e-02f, -1.268805191e-02f, -2.138281614e-02f, -6.136789545e-02f, -1.199710593e-01f, -1.530280560e-01f, -1.256798208e-01f, -7.359411567e-02f, -5.538469180e-02f, -6.275296211e-02f, -6.275296211e-02f, -6.275296211e-02f, 1.525381021e-02f, 1.525381021e-02f, 8.394284174e-03f, 1.083822362e-02f, 1.083822362e-02f, -2.809275128e-02f, -2.929014713e-02f, -4.201050103e-02f, 3.803323489e-04f, -3.709423542e-02f, -3.709423542e-02f, -8.114115894e-02f, -1.114064679e-01f, -1.383379549e-01f, -9.265095741e-02f, -6.431721151e-02f, 4.028976895e-03f, -8.997082710e-03f, 1.095784456e-02f, 2.520429716e-02f, 8.261424303e-02f, 1.045843065e-01f, 6.349407136e-02f, 4.595542699e-02f, 2.534802258e-02f, 8.693048358e-02f, 1.050476134e-01f, 1.090621799e-01f, 9.790294617e-02f, 6.590708345e-02f, 3.035811894e-02f, 2.710323595e-02f, 1.135605387e-02f, 1.952487603e-02f, 4.736937582e-02f, 3.596063703e-02f };

const static float layer_0_b[layer_0_row] = { 1.297864437e+00f, -4.225947380e+00f, -6.934618354e-01f, -2.374324322e+00f, -1.632563353e+00f };

const static ACTIVATION_FUNCTION layer_0_activtion_function = ACTIVATION_FUNCTION_CLOSEST_VALUE_INDEX;

#endif /* !layer_0_H_ */
