/*
 * layer_0.h
 *
 * Created on : 2023-11-05 20:28:18
 * Author: <Your name>
 * Purpose: <Classify <your things>
 * Model ID: 12716
 */

#ifndef layer_0_H_
#define layer_0_H_

/* Add the CControl header file */
#include "ccontrol.h"

/*
 * This is a Neural Network - A model that can classify raw data.
 * Most used for images, but you can use it at any data you want as long the data is stored into .pgm files in format P2 or P5.
 * This file contains one matrix called 'layer_0_w' and one vector called 'layer_0_b'.
 * To use this header file, your data that must be a vector of size 'layer_0_column' in row-major.
 * For example, if you have an image with size m * n, where m * n = 'layer_0_column', then you need to turn it into a vector in row-wise, not in column-wise.
 * Multiply your vector together with the matrix 'layer_0_w' and add vector 'layer_0_b'. Then you will get a new vector called y with the size 'layer_0_row'.
 * y = layer_0_w*your_data_vector + layer_0_b
 * The index of the largest number inside the vector y is the class ID of your_data_vector.
 * If you get wrong class ID, then you need to use take account to noise or use better dimension reduction.
 */

#define layer_0_row 5
#define layer_0_column 88

const static float layer_0_w[layer_0_row * layer_0_column] = { 4.746587947e-03f, -3.269683337e-03f, 1.959299296e-02f, 4.041669890e-02f, 3.342290968e-02f, 6.473907828e-02f, 5.600274727e-02f, 3.811255842e-02f, 2.480803058e-02f, 8.620245010e-02f, 1.048958674e-01f, 1.091454327e-01f, 9.895394742e-02f, 6.990028918e-02f, 3.713867068e-02f, 5.952194706e-02f, 1.187466457e-02f, 2.091851644e-02f, 5.265451595e-02f, 5.100006238e-02f, 7.854295522e-02f, 9.304734319e-02f, 7.419357449e-02f, 6.059396639e-02f, 2.790518105e-02f, 7.682491094e-02f, 1.031932458e-01f, 1.035912111e-01f, 9.300176054e-02f, 6.434809417e-02f, 3.159112483e-02f, -1.516313991e-03f, 2.147757076e-02f, 2.147757076e-02f, 2.147757076e-02f, 6.018183380e-02f, 1.105873510e-01f, 1.668154001e-01f, 1.761682034e-01f, 2.124944627e-01f, 2.078960277e-02f, 7.367981225e-02f, 9.605739266e-02f, 7.426909357e-02f, 6.874585152e-02f, 4.911687970e-02f, -9.125169367e-03f, -1.115162624e-03f, 1.073974557e-02f, 1.810501143e-02f, 3.275320306e-02f, 4.761787504e-02f, 8.507131785e-02f, 8.942986280e-02f, 1.444887519e-01f, 1.606820524e-01f, 4.508532584e-02f, 8.919984847e-02f, 7.660820335e-02f, 4.701048508e-02f, 4.148725048e-02f, -6.405846216e-03f, -2.188383415e-02f, 2.245211042e-02f, 1.080532093e-02f, 2.331048995e-02f, 3.067575395e-02f, 5.876766890e-02f, 1.370784044e-01f, 2.160260379e-01f, 2.988011241e-01f, 2.615841627e-01f, 3.937859088e-02f, 7.475549728e-02f, 6.723351777e-02f, 1.580235548e-02f, 1.280436106e-02f, -4.705693573e-02f, -1.241395622e-02f, -3.809274361e-02f, -2.745073289e-07f, -2.745073289e-07f, -1.969382167e-02f, -5.167324096e-02f, -4.602631088e-04f, 6.846125424e-02f, 5.058603734e-02f, 9.889015555e-02f, 
6.473907828e-02f, 5.600274727e-02f, 3.811255842e-02f, 2.480803058e-02f, 8.620245010e-02f, 1.048958674e-01f, 1.091454327e-01f, 9.895394742e-02f, 6.990028918e-02f, 3.713867068e-02f, 5.952194706e-02f, 1.187466457e-02f, 2.091851644e-02f, 5.265451595e-02f, 5.100006238e-02f, 7.854295522e-02f, 9.304734319e-02f, 7.419357449e-02f, 6.059396639e-02f, 2.790518105e-02f, 7.682491094e-02f, 1.031932458e-01f, 1.035912111e-01f, 9.300176054e-02f, 6.434809417e-02f, 3.159112483e-02f, -1.516313991e-03f, 2.147757076e-02f, 2.147757076e-02f, 2.147757076e-02f, 6.018183380e-02f, 1.105873510e-01f, 1.668154001e-01f, 1.761682034e-01f, 2.124944627e-01f, 2.078960277e-02f, 7.367981225e-02f, 9.605739266e-02f, 7.426909357e-02f, 6.874585152e-02f, 4.911687970e-02f, -9.125169367e-03f, -1.115162624e-03f, 1.073974557e-02f, 1.810501143e-02f, 3.275320306e-02f, 4.761787504e-02f, 8.507131785e-02f, 8.942986280e-02f, 1.444887519e-01f, 1.606820524e-01f, 4.508532584e-02f, 8.919984847e-02f, 7.660820335e-02f, 4.701048508e-02f, 4.148725048e-02f, -6.405846216e-03f, -2.188383415e-02f, 2.245211042e-02f, 1.080532093e-02f, 2.331048995e-02f, 3.067575395e-02f, 5.876766890e-02f, 1.370784044e-01f, 2.160260379e-01f, 2.988011241e-01f, 2.615841627e-01f, 3.937859088e-02f, 7.475549728e-02f, 6.723351777e-02f, 1.580235548e-02f, 1.280436106e-02f, -4.705693573e-02f, -1.241395622e-02f, -3.809274361e-02f, -2.745073289e-07f, -2.745073289e-07f, -1.969382167e-02f, -5.167324096e-02f, -4.602631088e-04f, 6.846125424e-02f, 5.058603734e-02f, 9.889015555e-02f, 8.844406903e-02f, 7.468102872e-02f, -3.099984303e-02f, -3.266628087e-02f, -5.071313307e-02f, 
1.048958674e-01f, 1.091454327e-01f, 9.895394742e-02f, 6.990028918e-02f, 3.713867068e-02f, 5.952194706e-02f, 1.187466457e-02f, 2.091851644e-02f, 5.265451595e-02f, 5.100006238e-02f, 7.854295522e-02f, 9.304734319e-02f, 7.419357449e-02f, 6.059396639e-02f, 2.790518105e-02f, 7.682491094e-02f, 1.031932458e-01f, 1.035912111e-01f, 9.300176054e-02f, 6.434809417e-02f, 3.159112483e-02f, -1.516313991e-03f, 2.147757076e-02f, 2.147757076e-02f, 2.147757076e-02f, 6.018183380e-02f, 1.105873510e-01f, 1.668154001e-01f, 1.761682034e-01f, 2.124944627e-01f, 2.078960277e-02f, 7.367981225e-02f, 9.605739266e-02f, 7.426909357e-02f, 6.874585152e-02f, 4.911687970e-02f, -9.125169367e-03f, -1.115162624e-03f, 1.073974557e-02f, 1.810501143e-02f, 3.275320306e-02f, 4.761787504e-02f, 8.507131785e-02f, 8.942986280e-02f, 1.444887519e-01f, 1.606820524e-01f, 4.508532584e-02f, 8.919984847e-02f, 7.660820335e-02f, 4.701048508e-02f, 4.148725048e-02f, -6.405846216e-03f, -2.188383415e-02f, 2.245211042e-02f, 1.080532093e-02f, 2.331048995e-02f, 3.067575395e-02f, 5.876766890e-02f, 1.370784044e-01f, 2.160260379e-01f, 2.988011241e-01f, 2.615841627e-01f, 3.937859088e-02f, 7.475549728e-02f, 6.723351777e-02f, 1.580235548e-02f, 1.280436106e-02f, -4.705693573e-02f, -1.241395622e-02f, -3.809274361e-02f, -2.745073289e-07f, -2.745073289e-07f, -1.969382167e-02f, -5.167324096e-02f, -4.602631088e-04f, 6.846125424e-02f, 5.058603734e-02f, 9.889015555e-02f, 8.844406903e-02f, 7.468102872e-02f, -3.099984303e-02f, -3.266628087e-02f, -5.071313307e-02f, -7.608374953e-02f, -1.440599859e-01f, -9.038501233e-02f, -5.087931640e-07f, -5.087931640e-07f, 
5.952194706e-02f, 1.187466457e-02f, 2.091851644e-02f, 5.265451595e-02f, 5.100006238e-02f, 7.854295522e-02f, 9.304734319e-02f, 7.419357449e-02f, 6.059396639e-02f, 2.790518105e-02f, 7.682491094e-02f, 1.031932458e-01f, 1.035912111e-01f, 9.300176054e-02f, 6.434809417e-02f, 3.159112483e-02f, -1.516313991e-03f, 2.147757076e-02f, 2.147757076e-02f, 2.147757076e-02f, 6.018183380e-02f, 1.105873510e-01f, 1.668154001e-01f, 1.761682034e-01f, 2.124944627e-01f, 2.078960277e-02f, 7.367981225e-02f, 9.605739266e-02f, 7.426909357e-02f, 6.874585152e-02f, 4.911687970e-02f, -9.125169367e-03f, -1.115162624e-03f, 1.073974557e-02f, 1.810501143e-02f, 3.275320306e-02f, 4.761787504e-02f, 8.507131785e-02f, 8.942986280e-02f, 1.444887519e-01f, 1.606820524e-01f, 4.508532584e-02f, 8.919984847e-02f, 7.660820335e-02f, 4.701048508e-02f, 4.148725048e-02f, -6.405846216e-03f, -2.188383415e-02f, 2.245211042e-02f, 1.080532093e-02f, 2.331048995e-02f, 3.067575395e-02f, 5.876766890e-02f, 1.370784044e-01f, 2.160260379e-01f, 2.988011241e-01f, 2.615841627e-01f, 3.937859088e-02f, 7.475549728e-02f, 6.723351777e-02f, 1.580235548e-02f, 1.280436106e-02f, -4.705693573e-02f, -1.241395622e-02f, -3.809274361e-02f, -2.745073289e-07f, -2.745073289e-07f, -1.969382167e-02f, -5.167324096e-02f, -4.602631088e-04f, 6.846125424e-02f, 5.058603734e-02f, 9.889015555e-02f, 8.844406903e-02f, 7.468102872e-02f, -3.099984303e-02f, -3.266628087e-02f, -5.071313307e-02f, -7.608374953e-02f, -1.440599859e-01f, -9.038501233e-02f, -5.087931640e-07f, -5.087931640e-07f, -9.988624603e-03f, -9.338106960e-03f, -1.984707196e-04f, -1.984707196e-04f, 3.963720053e-02f, 
7.854295522e-02f, 9.304734319e-02f, 7.419357449e-02f, 6.059396639e-02f, 2.790518105e-02f, 7.682491094e-02f, 1.031932458e-01f, 1.035912111e-01f, 9.300176054e-02f, 6.434809417e-02f, 3.159112483e-02f, -1.516313991e-03f, 2.147757076e-02f, 2.147757076e-02f, 2.147757076e-02f, 6.018183380e-02f, 1.105873510e-01f, 1.668154001e-01f, 1.761682034e-01f, 2.124944627e-01f, 2.078960277e-02f, 7.367981225e-02f, 9.605739266e-02f, 7.426909357e-02f, 6.874585152e-02f, 4.911687970e-02f, -9.125169367e-03f, -1.115162624e-03f, 1.073974557e-02f, 1.810501143e-02f, 3.275320306e-02f, 4.761787504e-02f, 8.507131785e-02f, 8.942986280e-02f, 1.444887519e-01f, 1.606820524e-01f, 4.508532584e-02f, 8.919984847e-02f, 7.660820335e-02f, 4.701048508e-02f, 4.148725048e-02f, -6.405846216e-03f, -2.188383415e-02f, 2.245211042e-02f, 1.080532093e-02f, 2.331048995e-02f, 3.067575395e-02f, 5.876766890e-02f, 1.370784044e-01f, 2.160260379e-01f, 2.988011241e-01f, 2.615841627e-01f, 3.937859088e-02f, 7.475549728e-02f, 6.723351777e-02f, 1.580235548e-02f, 1.280436106e-02f, -4.705693573e-02f, -1.241395622e-02f, -3.809274361e-02f, -2.745073289e-07f, -2.745073289e-07f, -1.969382167e-02f, -5.167324096e-02f, -4.602631088e-04f, 6.846125424e-02f, 5.058603734e-02f, 9.889015555e-02f, 8.844406903e-02f, 7.468102872e-02f, -3.099984303e-02f, -3.266628087e-02f, -5.071313307e-02f, -7.608374953e-02f, -1.440599859e-01f, -9.038501233e-02f, -5.087931640e-07f, -5.087931640e-07f, -9.988624603e-03f, -9.338106960e-03f, -1.984707196e-04f, -1.984707196e-04f, 3.963720053e-02f, 6.112178788e-02f, 6.978726387e-02f, 9.010672569e-02f, -2.141222171e-02f, -1.989009418e-02f };

const static float layer_0_b[layer_0_row] = { -4.180881023e+00f, -2.048911810e+00f, 1.364503145e+00f, -1.841244578e+00f, -7.407091260e-01f };

const static ACTIVATION_FUNCTION layer_0_activtion_function = ACTIVATION_FUNCTION_CLOSEST_VALUE_INDEX;

#endif /* !layer_0_H_ */
