/*
 * layer_0.h
 *
 * Created on : 2023-11-05 16:36:29
 * Author: <Your name>
 * Purpose: <Classify <your things>
 * Model ID: 63
 */

#ifndef layer_0_H_
#define layer_0_H_

/* Add the CControl header file */
#include "ccontrol.h"

/*
 * This is a Neural Network - A model that can classify raw data.
 * Most used for images, but you can use it at any data you want as long the data is stored into .pgm files in format P2 or P5.
 * This file contains one matrix called 'layer_0_w' and one vector called 'layer_0_b'.
 * To use this header file, your data that must be a vector of size 'layer_0_column' in row-major.
 * For example, if you have an image with size m * n, where m * n = 'layer_0_column', then you need to turn it into a vector in row-wise, not in column-wise.
 * Multiply your vector together with the matrix 'layer_0_w' and add vector 'layer_0_b'. Then you will get a new vector called y with the size 'layer_0_row'.
 * y = layer_0_w*your_data_vector + layer_0_b
 * The index of the largest number inside the vector y is the class ID of your_data_vector.
 * If you get wrong class ID, then you need to use take account to noise or use better dimension reduction.
 */

#define layer_0_row 5
#define layer_0_column 88

const static float layer_0_w[layer_0_row * layer_0_column] = { 3.299140604e-03f, 8.773210458e-03f, 7.940474898e-02f, 1.189023927e-01f, 1.624921709e-01f, 1.208881363e-01f, 5.717989802e-02f, 3.024427220e-02f, 3.670481266e-03f, 6.545882672e-03f, 6.545882672e-03f, 6.545882672e-03f, 6.545882672e-03f, 1.699717529e-02f, 1.141646784e-02f, -8.030665107e-03f, 8.378323168e-03f, 2.514158189e-02f, 7.475594431e-02f, 1.137985215e-01f, 1.501346380e-01f, 7.917910069e-02f, 1.539878454e-02f, 1.222388633e-02f, 1.115286630e-02f, 1.115286630e-02f, 1.115286630e-02f, 2.437762171e-02f, 2.102056891e-02f, 1.762142405e-02f, 4.548899829e-02f, 2.196275070e-02f, 3.842616826e-02f, 6.778583676e-02f, 6.538466364e-02f, 1.210324243e-01f, 1.520080119e-01f, 7.212590426e-02f, -3.579578549e-02f, -1.086225286e-01f, 4.460524395e-02f, 4.460524395e-02f, 4.460524395e-02f, 4.460524395e-02f, 2.674892545e-02f, 1.036645006e-02f, 3.081336990e-02f, 6.853374653e-03f, 3.627151623e-02f, 4.167758673e-02f, 2.176727727e-02f, 5.743121356e-02f, 6.211721152e-02f, -4.931007326e-02f, -1.543874890e-01f, -1.676540673e-01f, 4.460524395e-02f, 4.460524395e-02f, 4.460524395e-02f, 4.460524395e-02f, 5.783005804e-02f, 3.375284746e-02f, 2.281813696e-02f, 2.613016963e-02f, 3.914828226e-02f, 2.100815997e-02f, 4.568104818e-02f, -6.041300949e-04f, -8.930265903e-02f, -2.077431232e-01f, -3.354161382e-01f, -3.135393262e-01f, 4.395360127e-02f, 4.395360127e-02f, 4.395360127e-02f, 4.395360127e-02f, 4.395360127e-02f, 8.432161063e-02f, 7.965055853e-02f, 5.457833409e-02f, 1.053589489e-02f, 1.053589489e-02f, 1.053589489e-02f, 5.742586404e-02f, -1.652750885e-03f, -7.613111287e-02f, -9.825211763e-02f, -1.322338581e-01f, 
1.208881363e-01f, 5.717989802e-02f, 3.024427220e-02f, 3.670481266e-03f, 6.545882672e-03f, 6.545882672e-03f, 6.545882672e-03f, 6.545882672e-03f, 1.699717529e-02f, 1.141646784e-02f, -8.030665107e-03f, 8.378323168e-03f, 2.514158189e-02f, 7.475594431e-02f, 1.137985215e-01f, 1.501346380e-01f, 7.917910069e-02f, 1.539878454e-02f, 1.222388633e-02f, 1.115286630e-02f, 1.115286630e-02f, 1.115286630e-02f, 2.437762171e-02f, 2.102056891e-02f, 1.762142405e-02f, 4.548899829e-02f, 2.196275070e-02f, 3.842616826e-02f, 6.778583676e-02f, 6.538466364e-02f, 1.210324243e-01f, 1.520080119e-01f, 7.212590426e-02f, -3.579578549e-02f, -1.086225286e-01f, 4.460524395e-02f, 4.460524395e-02f, 4.460524395e-02f, 4.460524395e-02f, 2.674892545e-02f, 1.036645006e-02f, 3.081336990e-02f, 6.853374653e-03f, 3.627151623e-02f, 4.167758673e-02f, 2.176727727e-02f, 5.743121356e-02f, 6.211721152e-02f, -4.931007326e-02f, -1.543874890e-01f, -1.676540673e-01f, 4.460524395e-02f, 4.460524395e-02f, 4.460524395e-02f, 4.460524395e-02f, 5.783005804e-02f, 3.375284746e-02f, 2.281813696e-02f, 2.613016963e-02f, 3.914828226e-02f, 2.100815997e-02f, 4.568104818e-02f, -6.041300949e-04f, -8.930265903e-02f, -2.077431232e-01f, -3.354161382e-01f, -3.135393262e-01f, 4.395360127e-02f, 4.395360127e-02f, 4.395360127e-02f, 4.395360127e-02f, 4.395360127e-02f, 8.432161063e-02f, 7.965055853e-02f, 5.457833409e-02f, 1.053589489e-02f, 1.053589489e-02f, 1.053589489e-02f, 5.742586404e-02f, -1.652750885e-03f, -7.613111287e-02f, -9.825211763e-02f, -1.322338581e-01f, 2.696854621e-02f, 2.820532396e-02f, -4.199312627e-02f, -1.075993702e-01f, -1.763537079e-01f, 
6.545882672e-03f, 6.545882672e-03f, 6.545882672e-03f, 1.699717529e-02f, 1.141646784e-02f, -8.030665107e-03f, 8.378323168e-03f, 2.514158189e-02f, 7.475594431e-02f, 1.137985215e-01f, 1.501346380e-01f, 7.917910069e-02f, 1.539878454e-02f, 1.222388633e-02f, 1.115286630e-02f, 1.115286630e-02f, 1.115286630e-02f, 2.437762171e-02f, 2.102056891e-02f, 1.762142405e-02f, 4.548899829e-02f, 2.196275070e-02f, 3.842616826e-02f, 6.778583676e-02f, 6.538466364e-02f, 1.210324243e-01f, 1.520080119e-01f, 7.212590426e-02f, -3.579578549e-02f, -1.086225286e-01f, 4.460524395e-02f, 4.460524395e-02f, 4.460524395e-02f, 4.460524395e-02f, 2.674892545e-02f, 1.036645006e-02f, 3.081336990e-02f, 6.853374653e-03f, 3.627151623e-02f, 4.167758673e-02f, 2.176727727e-02f, 5.743121356e-02f, 6.211721152e-02f, -4.931007326e-02f, -1.543874890e-01f, -1.676540673e-01f, 4.460524395e-02f, 4.460524395e-02f, 4.460524395e-02f, 4.460524395e-02f, 5.783005804e-02f, 3.375284746e-02f, 2.281813696e-02f, 2.613016963e-02f, 3.914828226e-02f, 2.100815997e-02f, 4.568104818e-02f, -6.041300949e-04f, -8.930265903e-02f, -2.077431232e-01f, -3.354161382e-01f, -3.135393262e-01f, 4.395360127e-02f, 4.395360127e-02f, 4.395360127e-02f, 4.395360127e-02f, 4.395360127e-02f, 8.432161063e-02f, 7.965055853e-02f, 5.457833409e-02f, 1.053589489e-02f, 1.053589489e-02f, 1.053589489e-02f, 5.742586404e-02f, -1.652750885e-03f, -7.613111287e-02f, -9.825211763e-02f, -1.322338581e-01f, 2.696854621e-02f, 2.820532396e-02f, -4.199312627e-02f, -1.075993702e-01f, -1.763537079e-01f, -1.046106070e-01f, -6.471360475e-02f, -2.410922013e-02f, 3.288277984e-02f, 3.288277984e-02f, 
-8.030665107e-03f, 8.378323168e-03f, 2.514158189e-02f, 7.475594431e-02f, 1.137985215e-01f, 1.501346380e-01f, 7.917910069e-02f, 1.539878454e-02f, 1.222388633e-02f, 1.115286630e-02f, 1.115286630e-02f, 1.115286630e-02f, 2.437762171e-02f, 2.102056891e-02f, 1.762142405e-02f, 4.548899829e-02f, 2.196275070e-02f, 3.842616826e-02f, 6.778583676e-02f, 6.538466364e-02f, 1.210324243e-01f, 1.520080119e-01f, 7.212590426e-02f, -3.579578549e-02f, -1.086225286e-01f, 4.460524395e-02f, 4.460524395e-02f, 4.460524395e-02f, 4.460524395e-02f, 2.674892545e-02f, 1.036645006e-02f, 3.081336990e-02f, 6.853374653e-03f, 3.627151623e-02f, 4.167758673e-02f, 2.176727727e-02f, 5.743121356e-02f, 6.211721152e-02f, -4.931007326e-02f, -1.543874890e-01f, -1.676540673e-01f, 4.460524395e-02f, 4.460524395e-02f, 4.460524395e-02f, 4.460524395e-02f, 5.783005804e-02f, 3.375284746e-02f, 2.281813696e-02f, 2.613016963e-02f, 3.914828226e-02f, 2.100815997e-02f, 4.568104818e-02f, -6.041300949e-04f, -8.930265903e-02f, -2.077431232e-01f, -3.354161382e-01f, -3.135393262e-01f, 4.395360127e-02f, 4.395360127e-02f, 4.395360127e-02f, 4.395360127e-02f, 4.395360127e-02f, 8.432161063e-02f, 7.965055853e-02f, 5.457833409e-02f, 1.053589489e-02f, 1.053589489e-02f, 1.053589489e-02f, 5.742586404e-02f, -1.652750885e-03f, -7.613111287e-02f, -9.825211763e-02f, -1.322338581e-01f, 2.696854621e-02f, 2.820532396e-02f, -4.199312627e-02f, -1.075993702e-01f, -1.763537079e-01f, -1.046106070e-01f, -6.471360475e-02f, -2.410922013e-02f, 3.288277984e-02f, 3.288277984e-02f, 4.027129337e-02f, 4.027129337e-02f, 4.660029337e-02f, 4.660029337e-02f, 4.485379532e-02f, 
1.501346380e-01f, 7.917910069e-02f, 1.539878454e-02f, 1.222388633e-02f, 1.115286630e-02f, 1.115286630e-02f, 1.115286630e-02f, 2.437762171e-02f, 2.102056891e-02f, 1.762142405e-02f, 4.548899829e-02f, 2.196275070e-02f, 3.842616826e-02f, 6.778583676e-02f, 6.538466364e-02f, 1.210324243e-01f, 1.520080119e-01f, 7.212590426e-02f, -3.579578549e-02f, -1.086225286e-01f, 4.460524395e-02f, 4.460524395e-02f, 4.460524395e-02f, 4.460524395e-02f, 2.674892545e-02f, 1.036645006e-02f, 3.081336990e-02f, 6.853374653e-03f, 3.627151623e-02f, 4.167758673e-02f, 2.176727727e-02f, 5.743121356e-02f, 6.211721152e-02f, -4.931007326e-02f, -1.543874890e-01f, -1.676540673e-01f, 4.460524395e-02f, 4.460524395e-02f, 4.460524395e-02f, 4.460524395e-02f, 5.783005804e-02f, 3.375284746e-02f, 2.281813696e-02f, 2.613016963e-02f, 3.914828226e-02f, 2.100815997e-02f, 4.568104818e-02f, -6.041300949e-04f, -8.930265903e-02f, -2.077431232e-01f, -3.354161382e-01f, -3.135393262e-01f, 4.395360127e-02f, 4.395360127e-02f, 4.395360127e-02f, 4.395360127e-02f, 4.395360127e-02f, 8.432161063e-02f, 7.965055853e-02f, 5.457833409e-02f, 1.053589489e-02f, 1.053589489e-02f, 1.053589489e-02f, 5.742586404e-02f, -1.652750885e-03f, -7.613111287e-02f, -9.825211763e-02f, -1.322338581e-01f, 2.696854621e-02f, 2.820532396e-02f, -4.199312627e-02f, -1.075993702e-01f, -1.763537079e-01f, -1.046106070e-01f, -6.471360475e-02f, -2.410922013e-02f, 3.288277984e-02f, 3.288277984e-02f, 4.027129337e-02f, 4.027129337e-02f, 4.660029337e-02f, 4.660029337e-02f, 4.485379532e-02f, 8.277451247e-02f, 2.864464372e-02f, -4.920233041e-04f, -7.122151554e-02f, -1.232848316e-01f };

const static float layer_0_b[layer_0_row] = { -2.372556448e+00f, -8.145976067e-01f, 7.746756673e-01f, -9.076948166e-01f, -4.081589699e+00f };

const static ACTIVATION_FUNCTION layer_0_activtion_function = ACTIVTION_FUNCTION_CLOSEST_VALUE_INDEX;

#endif /* !layer_0_H_ */
